{
 "schema": "v014_switzerland_guardfix_venting_budget",
 "generated_utc": "2026-06-12T01:12:41.233028+00:00",
 "fix": "_THETA_LIMITER_MAX_K 500.0 -> 1000.0 (operational_mode.py); production config otherwise identical to phys_tendf baseline",
 "cpu_h37": {
  "dM_pa_per_cell_h": -69.33673469387755,
  "net_influx_pa_per_cell_h": -74.51517857142858,
  "residual_pa_per_cell_h": 5.178443877551032
 },
 "guardfix_h37": {
  "dM_pa_per_cell_h": -56.744897959183675,
  "net_influx_pa_per_cell_h": -65.97474489795918,
  "residual_pa_per_cell_h": 9.229846938775509
 },
 "excess_outflux_pa_cell_h_h37": 8.540433673469394,
 "cpu_h37_h38_window": {
  "dM_pa_per_cell_h": -66.27551020408163,
  "net_influx_pa_per_cell_h": -67.1858418367347,
  "residual_pa_per_cell_h": 0.9103316326530688
 },
 "guardfix_h37_h38_window": {
  "dM_pa_per_cell_h": -55.816326530612244,
  "net_influx_pa_per_cell_h": -52.272704081632654,
  "residual_pa_per_cell_h": -3.5436224489795904
 },
 "excess_outflux_pa_cell_h_h37_h38_window": 14.913137755102042,
 "cpu_h38_cum": {
  "dM_pa_per_cell_h": -135.6122448979592,
  "net_influx_pa_per_cell_h": -71.26836734693877,
  "residual_pa_per_cell_h": -64.34387755102041
 },
 "guardfix_h38_cum": {
  "dM_pa_per_cell_h": -112.56122448979592,
  "net_influx_pa_per_cell_h": -64.89566326530611,
  "residual_pa_per_cell_h": -47.66556122448981
 },
 "excess_outflux_pa_cell_h_h38_cum": 6.372704081632662,
 "baseline_phys_tendf_excess_h37": -26.544642857142847,
 "metrics_h37": {
  "available": true,
  "valid_h": 37,
  "mu": {
   "rmse": 24.13748550415039,
   "bias": 11.10610580444336,
   "finite": true
  },
  "psfc": {
   "rmse": 23.042224884033203,
   "bias": 9.023717880249023,
   "finite": true
  },
  "t": {
   "rmse": 0.4351268708705902,
   "bias": -0.04963717609643936,
   "finite": true
  },
  "u": {
   "rmse": 0.8003798723220825,
   "bias": 0.06866516172885895,
   "finite": true
  },
  "v": {
   "rmse": 0.5528609156608582,
   "bias": 0.030377961695194244,
   "finite": true
  },
  "w": {
   "rmse": 0.0889977216720581,
   "bias": -0.0009024757309816778,
   "finite": true
  },
  "ph": {
   "rmse": 15.099008560180664,
   "bias": -3.296948194503784,
   "finite": true
  }
 },
 "metrics_h38": {
  "available": true,
  "valid_h": 38,
  "mu": {
   "rmse": 26.56435775756836,
   "bias": 19.22275161743164,
   "finite": true
  },
  "psfc": {
   "rmse": 24.491300582885742,
   "bias": 16.4427433013916,
   "finite": true
  },
  "t": {
   "rmse": 0.490496426820755,
   "bias": -0.06099468097090721,
   "finite": true
  },
  "u": {
   "rmse": 0.8580717444419861,
   "bias": 0.02604631707072258,
   "finite": true
  },
  "v": {
   "rmse": 0.6764964461326599,
   "bias": 0.016742751002311707,
   "finite": true
  },
  "w": {
   "rmse": 0.10499007254838943,
   "bias": -0.0006729955202899873,
   "finite": true
  },
  "ph": {
   "rmse": 16.093124389648438,
   "bias": -3.155421257019043,
   "finite": true
  }
 },
 "metrics_h39": {
  "available": true,
  "valid_h": 39,
  "mu": {
   "rmse": 30.197689056396484,
   "bias": 23.71941375732422,
   "finite": true
  },
  "psfc": {
   "rmse": 27.483951568603516,
   "bias": 20.966602325439453,
   "finite": true
  },
  "t": {
   "rmse": 0.5626595616340637,
   "bias": -0.05602610111236572,
   "finite": true
  },
  "u": {
   "rmse": 0.9577493667602539,
   "bias": 0.025484930723905563,
   "finite": true
  },
  "v": {
   "rmse": 0.8021393418312073,
   "bias": 0.007308938540518284,
   "finite": true
  },
  "w": {
   "rmse": 0.11660989373922348,
   "bias": -0.000331111834384501,
   "finite": true
  },
  "ph": {
   "rmse": 17.982810974121094,
   "bias": -1.979422688484192,
   "finite": true
  }
 },
 "dtheta_profile_h37_guardfix": [
  -0.2342828755476037,
  -0.20266110313181973,
  -0.1492386667095885,
  -0.0887700538245999,
  -0.03354880274558554,
  -0.000139431077606824,
  0.013431515012468611,
  0.011154503238444425,
  -0.022545931290607064,
  -0.08033676780000025,
  -0.1270659286148694,
  -0.15604396012364602,
  -0.1523213410864071,
  -0.09132952349526542,
  -0.045347425402427206,
  -0.027839611987678373,
  -0.04405344992267842,
  -0.056977308526331066,
  -0.04818808302587392,
  -0.015257638327929438,
  0.006077537731248505,
  0.018497919549747388,
  0.03551874355394013,
  0.05759413631594911,
  0.0778982128415789,
  0.08528769746118663,
  0.06339601108006068,
  0.02172595384169598,
  -0.02243779873361393,
  -0.05986952781677246,
  -0.0908103086510483,
  -0.1091024924297722,
  -0.11498462180702054,
  -0.11230471426126909,
  -0.11413639905501385,
  -0.05949788677449129,
  0.01166823688818484,
  -0.037036776542663574,
  -0.12988150606350024,
  -0.10040156452023254,
  -0.08742790562765938,
  -0.10785011126070607,
  -0.1655682155064174,
  -0.10726282547931282
 ],
 "dtheta_profile_h37_baseline": [
  0.29692754210258016,
  0.3810587513203524,
  0.4544303271235252,
  0.5239390864664194,
  0.5786726888345213,
  0.6059008593461952,
  0.6073640633602532,
  0.5920611425321929,
  0.5442274006045594,
  0.47906435509117284,
  0.4281984932568608,
  0.3892666685337923,
  0.39158428688438573,
  0.4502060753958566,
  0.4850458320306272,
  0.4834881339754377,
  0.4550932718783009,
  0.4318469081606184,
  0.4357832280956969,
  0.4641091020739808,
  0.46683475192712276,
  0.45394421840200616,
  0.43597015556024044,
  0.3957630322904003,
  0.3387972530053586,
  0.2796692872533993,
  0.21815617230473733,
  0.16112273323292636,
  0.11487615838342784,
  0.07775627350320621,
  0.04056330602996203,
  0.009914680403106066,
  -0.009086372900982293,
  -0.017909161898554588,
  -0.030282908556412677,
  0.013825358176717952,
  0.06902382568437226,
  -0.010143606030211156,
  -0.1383758223786646,
  -0.12971819420250094,
  -0.11860642384509651,
  -0.13438244011937356,
  -0.2506753546851022,
  -1.1726277920664574
 ],
 "du_bands_h37": {
  "k00": {
   "guardfix": 0.35919269080212746,
   "baseline": 0.387681138042192
  },
  "k01_07": {
   "guardfix": 0.38125576428424424,
   "baseline": 0.5255275021680008
  },
  "k10_24": {
   "guardfix": -0.10722960875924265,
   "baseline": -0.1528719508720302
  },
  "k27_33": {
   "guardfix": 0.19412209254312102,
   "baseline": 0.15377120679086914
  }
 },
 "k43_frac_theta_gt_500_h37": {
  "cpu": 0.6934814453125,
  "guardfix": 0.66705322265625,
  "baseline": 0.099853515625
 }
}